#ifndef MODEL_WEIGHTS_H
#define MODEL_WEIGHTS_H

// === Model Constants ===
#define VOCAB_SIZE 8
#define EMBED_DIM 8
#define SEQ_LEN 5
#define GRU_UNITS 16
#define OUTPUT_CLASSES 2

// === Embedding Weights ===
// shape: (8, 8)
float embedding_weights[64] = {
  -0.030673, -0.024732, -0.005864, -0.021916, 0.013000, 0.068460, -0.048034, -0.002888, -0.327789, -0.280600, 0.263900, -0.263498, -0.272405, -0.274343, -0.314026, -0.276260, -0.028728, 0.046988, 0.030920, -0.001793, 0.000031, 0.018194, -0.047392, 0.033525, -0.019457, -0.012625, -0.022182, 0.033198, -0.013085, -0.009624, 0.016590, -0.002716, 0.254281, 0.266555, -0.282289, 0.341996, 0.250738, 0.292382, 0.274845, 0.249113, 0.017150, -0.000789, 0.053304, 0.001401, 0.018242, -0.006887, 0.010691, 0.017351, 0.005877, -0.029749, 0.002041, 0.039189, -0.048454, 0.040580, -0.024774, 0.002872, 0.024207, 0.014707, 0.051133, 0.019966, 0.000700, 0.019107, -0.028031, -0.006373
};

// === GRU Weights ===
// shape: (8, 48)
float gru_kernel[384] = {
  0.074395, 0.137730, 0.472022, -0.193005, 0.367156, 0.273541, 0.259738, -0.137652, 0.131623, -0.074474, 0.144636, 0.176152, 0.023957, 0.424694, -0.182296, 0.139043, -0.436438, -0.063222, -0.434571, 0.140773, -0.095296, 0.077279, -0.190441, 0.282492, -0.464856, -0.064624, 0.352612, -0.055022, -0.105292, -0.454130, 0.174729, -0.076977, 0.044302, 0.280832, -0.231852, -0.239275, -0.044220, -0.207410, -0.362029, -0.338780, 0.414757, 0.060056, 0.327816, 0.126617, 0.419573, -0.036863, 0.357997, 0.123218, -0.196798, -0.367911, -0.007043, 0.018637, 0.231330, -0.386181, 0.450330, -0.277949, 0.096614, -0.142496, -0.013875, -0.233299, -0.155711, 0.308267, -0.044740, -0.465848, -0.459841, 0.137378, -0.400768, 0.169631, -0.104694, 0.289335, 0.043902, 0.092767, -0.032292, -0.414705, 0.003458, 0.091153, 0.166995, 0.166756, -0.346263, -0.028705, -0.317579, 0.301260, -0.453605, 0.001518, -0.193617, -0.431937, -0.123380, -0.076766, 0.065841, 0.055267, 0.469325, -0.287385, -0.156429, -0.233613, 0.309123, -0.144415, -0.330860, 0.315919, 0.053665, 0.019975, 0.000205, 0.222940, -0.109308, 0.171719, -0.373360, -0.390716, 0.192822, 0.216246, -0.103206, -0.063439, -0.097279, -0.017421, -0.066879, -0.117396, -0.171779, 0.033009, 0.358775, 0.117550, 0.275640, -0.070206, 0.069188, -0.212853, 0.036702, -0.077990, 0.423727, -0.118884, 0.065362, 0.051260, 0.317567, -0.434468, 0.445459, -0.162997, -0.153178, 0.170659, -0.182397, -0.113309, -0.200422, -0.268578, -0.211550, -0.185026, -0.135939, 0.310023, -0.094260, -0.343890, -0.062213, -0.179088, 0.273865, -0.097680, 0.021758, -0.451151, -0.057352, -0.189438, -0.129530, -0.269847, -0.232052, 0.157044, -0.155033, 0.302359, 0.303935, -0.092668, 0.002987, 0.272613, -0.477363, 0.379233, -0.167619, 0.343830, -0.387870, 0.358719, -0.230693, 0.117475, 0.173178, 0.380039, 0.001023, -0.232138, -0.217531, -0.364445, -0.449633, 0.136355, 0.168929, -0.154928, -0.109552, -0.047158, -0.128146, -0.028359, -0.073304, 0.145711, 0.056948, -0.439889, 0.270695, -0.310368, 0.025347, 0.288018, 0.372907, 0.139613, 0.212043, -0.055631, 0.412309, -0.375850, -0.158044, -0.340345, 0.160742, 0.284907, -0.064980, 0.016954, -0.010237, 0.138080, 0.208792, -0.339618, -0.157248, -0.172926, -0.043617, 0.354638, -0.355160, 0.381324, 0.127135, -0.061533, -0.132739, 0.003381, 0.064655, 0.173378, 0.054741, 0.054020, 0.012621, -0.277085, 0.035987, 0.196141, -0.454019, -0.335018, -0.119752, -0.105516, -0.016677, -0.441277, 0.398048, -0.134400, 0.063853, 0.004115, -0.020414, -0.415130, 0.174274, 0.282542, 0.351678, -0.328909, 0.038678, -0.268143, -0.381919, -0.157149, -0.029742, 0.087710, 0.051343, 0.451609, -0.248830, 0.027098, 0.114764, 0.250752, -0.196645, -0.141266, -0.112690, 0.198444, -0.058997, 0.008390, -0.074568, 0.395209, 0.218514, 0.277396, -0.257048, 0.146115, 0.188626, 0.456643, -0.062107, 0.339292, 0.107836, -0.293334, -0.157161, 0.160664, -0.193860, -0.361154, -0.117554, 0.059843, -0.442437, -0.182070, 0.324567, 0.432853, -0.014001, -0.161489, 0.289300, -0.423750, 0.116706, 0.284171, 0.146845, -0.112224, 0.049176, -0.027829, 0.116817, 0.238398, -0.041396, -0.298624, 0.326966, 0.358972, -0.023109, 0.187724, 0.317903, 0.338850, 0.383028, -0.332821, -0.012987, -0.080403, -0.094850, 0.089976, -0.153117, -0.413364, -0.065749, 0.343681, -0.409113, 0.079832, 0.462774, -0.222374, -0.480741, -0.396573, 0.077371, -0.448158, -0.299644, 0.163491, 0.006852, -0.279592, -0.436006, -0.392657, -0.016795, -0.446098, 0.014316, 0.296767, 0.075821, -0.217049, 0.150600, 0.123185, 0.259493, 0.479669, 0.191260, -0.127971, -0.144653, 0.175456, -0.184646, -0.214150, 0.439430, -0.097799, -0.126246, 0.394735, -0.317669, 0.147569, 0.037009, 0.319760, -0.197483, -0.451063, 0.022754, -0.168050, -0.172749, 0.033211, -0.256158, -0.060547, -0.160062, 0.069544, 0.091420, -0.287183, 0.425453, 0.037652, -0.026680, -0.189254, -0.154379, -0.377164, -0.096876, 0.174009, -0.443895, -0.309290, -0.164372, -0.246019, -0.374210, 0.147639, -0.180244, 0.125823, 0.395477, -0.203659, 0.206868, -0.343260, 0.432698, 0.018130
};
// shape: (16, 48)
float gru_recurrent[768] = {
  -0.269534, -0.202975, -0.365487, 0.018665, -0.331699, -0.141479, -0.109639, -0.066401, 0.003970, -0.152709, -0.234159, -0.311906, -0.264222, -0.406416, -0.348563, -0.315430, 0.036454, 0.197678, 0.214250, 0.337281, 0.094489, 0.345498, 0.246272, 0.300195, -0.212988, 0.159745, -0.028071, 0.079920, 0.034690, 0.064863, 0.063135, 0.107189, 0.274495, -0.372392, 0.039846, 0.228108, 0.266596, 0.375416, -0.016681, 0.279523, -0.308345, -0.320487, 0.012135, 0.166708, -0.067548, 0.297251, -0.085545, -0.420130, 0.192289, -0.141567, -0.205718, -0.359224, -0.118360, 0.035900, -0.262316, 0.042247, -0.499130, -0.302422, -0.370337, -0.180015, -0.102889, 0.185700, -0.190693, -0.059638, 0.069520, 0.363391, 0.040463, 0.044874, -0.005045, 0.376927, 0.079257, 0.325625, 0.158754, 0.047706, 0.179654, 0.274752, 0.104106, -0.082031, 0.293649, 0.305500, -0.133598, 0.248011, -0.373507, -0.028193, -0.357558, -0.418349, -0.396506, -0.281819, 0.203872, 0.059814, 0.256837, 0.038503, 0.344150, -0.136809, 0.001089, 0.061218, -0.334489, -0.072426, 0.078078, 0.108370, -0.283186, -0.366982, -0.027656, -0.311441, -0.212267, -0.240253, -0.071311, -0.253051, -0.093100, -0.191012, 0.088365, -0.031210, 0.114765, 0.066310, 0.117955, -0.111618, -0.147975, 0.367304, 0.196808, 0.178050, 0.125117, 0.261663, -0.125175, 0.197585, 0.221334, 0.489130, 0.211588, 0.396366, 0.008605, -0.252279, 0.149749, 0.048703, 0.152909, 0.115848, 0.293124, 0.267011, -0.313888, -0.341201, -0.009969, 0.312171, -0.343434, 0.389596, 0.021506, -0.136970, -0.043379, 0.249227, -0.067976, 0.284080, 0.115471, 0.063078, 0.220312, 0.301288, 0.130633, -0.030383, 0.224801, 0.169286, -0.026097, 0.106338, -0.026340, 0.223350, -0.119117, -0.079109, -0.270634, -0.349508, -0.241735, -0.224341, -0.262843, -0.507355, 0.122319, -0.274368, -0.135272, -0.434067, -0.163486, 0.054474, -0.382092, -0.018411, 0.055064, -0.088929, 0.088752, 0.039684, 0.399892, 0.377950, 0.140427, 0.164746, -0.012316, -0.288733, -0.123630, 0.426320, -0.094869, 0.113052, 0.155502, -0.358382, -0.166124, 0.077897, 0.110966, 0.088100, -0.192134, -0.126853, 0.458358, 0.150987, -0.026843, 0.114200, 0.123358, 0.070800, 0.243994, -0.090942, 0.196451, 0.235370, 0.255303, -0.151073, 0.389217, -0.120292, 0.245682, -0.088194, -0.236135, -0.354879, 0.010336, 0.122649, 0.021684, -0.247171, 0.018705, 0.004917, 0.144609, 0.013274, 0.261170, -0.371157, -0.008943, -0.043609, 0.290038, 0.082732, 0.225006, -0.040537, -0.264612, -0.236745, 0.020151, 0.483506, -0.139724, 0.174895, 0.207884, -0.250092, -0.193916, 0.459655, 0.340979, 0.381940, 0.169141, 0.149711, 0.048871, 0.339874, 0.248896, 0.325726, -0.041299, 0.119640, 0.199633, 0.136798, 0.103228, 0.190767, 0.269971, -0.057758, -0.057143, -0.254316, -0.021765, -0.218104, -0.105259, -0.033062, -0.137235, -0.051870, 0.065742, -0.098948, -0.187133, 0.138734, -0.238634, -0.306464, -0.082927, -0.327793, 0.226153, 0.228322, 0.165203, 0.271178, -0.025235, 0.043514, -0.145960, -0.343713, -0.089006, 0.478572, -0.253792, -0.059580, 0.194490, 0.209258, -0.032186, 0.186648, -0.040374, 0.187889, -0.142675, -0.198016, 0.046116, 0.017355, -0.204142, -0.340258, -0.045280, -0.136478, -0.027915, -0.142879, 0.052998, -0.030417, 0.130877, -0.075037, 0.179566, 0.044575, 0.420802, -0.047387, -0.145603, -0.282458, 0.060882, -0.068852, -0.237766, 0.073216, 0.373855, 0.336318, -0.177044, 0.217422, 0.235506, -0.233332, 0.243806, 0.571495, 0.491635, 0.002204, 0.180978, 0.328048, -0.414577, -0.076596, 0.010393, 0.229419, -0.223949, 0.108100, 0.118908, -0.076799, 0.359660, 0.166647, 0.150103, 0.118158, 0.190538, 0.184645, 0.148728, -0.057585, -0.070086, 0.312010, 0.253975, 0.091283, 0.316867, 0.080551, -0.122613, 0.235833, -0.057982, -0.191377, -0.066542, -0.282986, 0.076106, -0.136458, 0.066635, -0.079456, 0.039215, -0.314414, -0.237453, -0.292499, -0.042060, 0.106453, -0.041608, -0.440337, 0.121246, -0.220090, -0.031574, 0.101503, 0.079656, 0.292786, 0.149302, 0.164981, -0.369985, -0.408935, 0.007659, 0.145112, -0.398336, 0.158330, 0.153906, -0.262004, 0.230069, 0.224344, -0.010466, -0.257429, 0.363663, 0.189026, 0.128685, 0.286976, 0.201813, 0.344238, 0.203711, 0.401939, -0.005710, 0.091383, 0.213980, -0.046346, -0.252599, -0.417322, -0.323714, -0.464492, -0.146610, 0.165685, -0.301576, 0.048991, -0.273466, -0.342384, 0.105246, -0.242220, -0.145947, -0.199983, -0.186917, -0.175024, -0.378587, 0.141545, -0.074648, -0.224652, -0.116019, -0.321055, -0.197816, -0.078976, -0.057820, 0.217660, -0.087982, -0.109563, 0.233627, -0.208474, -0.096406, 0.207427, 0.114215, 0.298830, 0.364447, 0.164533, 0.153606, -0.104695, 0.299161, 0.303548, 0.166451, -0.089255, 0.197503, 0.120841, 0.320811, 0.316104, -0.002976, 0.361340, -0.322043, -0.023590, -0.342179, -0.025022, -0.186305, -0.151859, -0.202845, 0.209060, -0.118022, -0.356858, -0.149642, -0.191110, -0.240840, -0.537471, 0.037628, -0.182798, -0.251020, 0.082830, -0.144651, -0.132420, -0.244341, -0.242676, -0.116164, 0.028710, 0.229479, 0.106147, 0.105710, -0.129817, 0.031458, -0.290309, -0.368204, 0.158225, -0.357671, -0.074924, -0.351640, -0.211735, -0.042141, -0.168220, -0.230141, -0.481496, -0.270903, -0.284150, -0.291727, -0.242202, -0.022221, -0.581238, -0.262392, -0.274973, -0.150541, 0.326891, 0.006009, 0.096419, 0.355027, 0.173226, 0.136411, 0.203850, 0.196988, 0.435763, 0.268813, 0.035507, 0.168665, 0.018264, 0.197478, 0.215624, -0.142169, 0.255074, -0.066543, -0.287227, -0.101348, -0.411108, -0.270260, -0.247438, 0.206039, 0.245282, 0.262714, -0.106210, 0.097606, -0.164859, -0.060536, 0.225796, 0.016913, 0.106665, -0.272107, 0.041810, -0.112649, -0.040886, 0.084657, 0.264216, 0.112261, -0.281325, -0.153275, -0.028153, 0.165509, -0.119485, 0.355635, -0.450374, 0.193904, 0.125417, 0.210007, -0.222931, 0.143051, -0.302283, 0.080536, -0.037082, 0.288739, 0.289822, -0.192746, -0.009678, 0.181882, 0.182513, -0.044849, 0.243736, 0.091419, -0.410835, -0.218585, 0.010404, 0.223650, 0.219112, 0.156197, 0.404001, -0.225105, -0.139384, -0.139199, 0.131695, -0.117988, 0.251411, 0.146479, -0.180002, 0.273895, -0.214354, -0.104629, -0.095090, -0.191610, -0.138722, -0.295150, 0.184666, -0.230491, 0.138151, -0.197011, 0.216451, -0.173961, -0.007224, -0.109024, 0.029143, -0.093352, 0.237127, -0.135734, 0.265455, 0.055128, 0.097742, 0.287938, 0.032962, -0.159714, -0.022334, 0.107133, 0.210145, -0.060149, -0.069149, 0.213606, 0.226924, 0.049981, 0.088287, 0.054559, -0.389595, -0.452547, -0.183872, -0.075032, 0.004035, 0.057878, 0.086250, 0.116474, 0.004540, 0.050553, -0.223240, -0.359850, 0.324412, -0.274383, -0.148635, 0.208745, -0.151367, -0.228246, -0.325083, -0.047688, 0.064399, -0.266112, -0.230141, -0.357716, -0.024798, 0.087305, -0.201005, -0.310051, -0.181303, -0.034796, 0.018088, 0.303383, 0.047511, 0.265819, 0.234288, 0.389866, 0.106292, 0.250530, 0.028718, -0.123324, 0.122403, 0.186764, 0.073394, 0.217323, 0.312411, 0.070367, -0.231930, 0.256124, 0.088674, 0.245233, 0.351266, 0.257304, -0.004064, -0.058118, -0.057513, -0.236046, 0.089279, 0.138617, 0.462068, 0.162773, 0.041965, 0.096749, 0.200318, 0.056632, 0.117469, 0.059804, 0.166152, 0.104410, 0.094510, 0.276693, 0.256236, 0.252703, 0.178531, -0.348630, -0.028762, 0.210075, 0.151892, -0.288983, -0.096006, -0.265438, -0.158508, 0.000106, -0.360566, -0.307661, 0.158831, 0.234160, -0.297967, 0.229413, -0.231732, -0.196736, -0.195919, -0.091789, -0.078878, -0.029217, 0.035378, -0.191155, 0.020700, -0.293824, -0.121069, 0.007993, -0.320097, -0.046213, 0.239361, 0.212304, -0.137681, 0.163831, -0.078276, 0.369880, 0.177249, 0.180129, 0.002731, 0.117906, -0.551167, -0.097661, -0.384226, -0.255601, 0.030828, -0.095784, 0.016215, -0.175394, -0.351299, -0.189722, 0.119398, -0.207154, 0.116169, -0.196763, 0.379429, -0.147994, 0.213179, 0.138397, 0.177525, 0.125608, -0.018793, -0.059649, 0.240382, 0.124850, 0.118158, -0.042273, 0.062798, 0.085920, -0.006597, -0.208685, 0.357581, -0.303092, -0.296294, -0.147751, -0.040373, -0.155031, -0.167896, -0.050918, 0.059046, 0.255941, -0.419593, 0.265726, -0.136234, -0.146720, 0.496606
};
// shape: (2, 48)
float gru_bias[96] = {
  -0.162265, -0.174351, -0.149304, -0.092063, -0.171414, -0.179443, -0.131263, -0.115104, -0.140873, -0.124038, -0.151857, -0.156195, -0.085013, -0.091080, -0.121358, -0.179688, 0.093995, 0.155069, 0.144082, 0.174274, 0.170494, 0.153300, 0.147190, 0.156628, 0.144823, 0.156037, 0.144927, 0.163340, 0.149793, 0.151093, 0.184455, 0.182881, 0.150112, 0.083390, 0.132830, -0.146383, -0.161296, -0.128989, 0.021184, -0.136383, -0.151000, -0.153091, 0.144043, 0.150723, 0.138760, 0.020726, -0.180971, 0.155001, -0.162265, -0.174351, -0.149304, -0.092063, -0.171414, -0.179443, -0.131263, -0.115104, -0.140873, -0.124038, -0.151857, -0.156195, -0.085013, -0.091080, -0.121358, -0.179688, 0.093995, 0.155069, 0.144082, 0.174274, 0.170494, 0.153300, 0.147190, 0.156628, 0.144823, 0.156037, 0.144927, 0.163340, 0.149793, 0.151093, 0.184455, 0.182881, 0.150382, 0.142773, 0.158434, -0.149557, 0.136638, -0.149875, 0.132082, -0.161683, -0.167784, -0.135559, 0.184958, -0.122358, -0.120845, 0.141625, -0.189604, -0.010864
};

// === Dense Weights ===
// shape: (16, 2)
float dense_kernel[32] = {
  0.029216, 0.604919, 0.317027, -0.708690, -0.488546, 0.127044, -0.182821, 0.692883, -0.208458, 0.414705, -0.684934, 0.311467, -0.710854, 0.233335, -0.604722, 0.368375, 0.326463, -0.242283, 0.489751, -0.366489, 0.105944, -0.024422, -0.250082, 0.643467, 0.405542, -0.578897, -0.724654, 0.728204, 0.115061, 0.387040, -0.070057, -0.501412
};
// shape: (2,)
float dense_bias[2] = {
  0.068650, -0.068650
};

// === Tokenizer Vocabulary ===
const char* vocab[VOCAB_SIZE] = {
  "PAD",
  "on",
  "led",
  "light",
  "off",
  "turn",
  "the",
  "switch"
};

#endif // MODEL_WEIGHTS_H
